<?xml version="1.0"?>
<opencv_storage>
<cascade>
  <stageType>BOOST</stageType>
  <featureType>HAAR</featureType>
  <height>20</height>
  <width>20</width>
  <stageParams>
    <boostType>GAB</boostType>
    <minHitRate>9.9500000476837158e-01</minHitRate>
    <maxFalseAlarm>5.0000000000000000e-01</maxFalseAlarm>
    <weightTrimRate>9.4999999999999996e-01</weightTrimRate>
    <maxDepth>1</maxDepth>
    <maxWeakCount>100</maxWeakCount></stageParams>
  <featureParams>
    <maxCatCount>0</maxCatCount>
    <featSize>1</featSize>
    <mode>BASIC</mode></featureParams>
  <stageNum>16</stageNum>
  <stages>
    <!-- stage 0 -->
    <_>
      <maxWeakCount>2</maxWeakCount>
      <stageThreshold>-7.9885117709636688e-02</stageThreshold>
      <weakClassifiers>
        <_>
          <internalNodes>
            0 -1 23 1.3556313514709473e-01</internalNodes>
          <leafValues>
            -9.6966159343719482e-01 9.3922948837280273e-01</leafValues></_>
        <_>
          <internalNodes>
            0 -1 2 1.8818119168281555e-01</internalNodes>
          <leafValues>
            -9.5463812351226807e-01 8.8977646827697754e-01</leafValues></_></weakClassifiers></_>
    <!-- stage 1 -->
    <_>
      <maxWeakCount>4</maxWeakCount>
      <stageThreshold>-8.6192834377288818e-01</stageThreshold>
      <weakClassifiers>
        <_>
          <internalNodes>
            0 -1 36 4.5474044978618622e-02</internalNodes>
          <leafValues>
            -8.9712554216384888e-01 7.3222166299819946e-01</leafValues></_>
        <_>
          <internalNodes>
            0 -1 3 1.6709482669830322e-01</internalNodes>
          <leafValues>
            -8.2545179128646851e-01 5.8472543954849243e-01</leafValues></_>
        <_>
          <internalNodes>
            0 -1 28 -2.5451213121414185e-02</internalNodes>
          <leafValues>
            5.2424412965774536e-01 -9.0924322605133057e-01</leafValues></_>
        <_>
          <internalNodes>
            0 -1 55 -3.3099949359893799e-03</internalNodes>
          <leafValues>
            3.3640488982200623e-01 -9.6545362472534180e-01</leafValues></_></weakClassifiers></_>
    <!-- stage 2 -->
    <_>
      <maxWeakCount>5</maxWeakCount>
      <stageThreshold>-1.2654062509536743e+00</stageThreshold>
      <weakClassifiers>
        <_>
          <internalNodes>
            0 -1 19 -3.4912593662738800e-02</internalNodes>
          <leafValues>
            6.7403846979141235e-01 -8.0967742204666138e-01</leafValues></_>
        <_>
          <internalNodes>
            0 -1 8 1.6502763610333204e-03</internalNodes>
          <leafValues>
            -7.4812614917755127e-01 5.9886068105697632e-01</leafValues></_>
        <_>
          <internalNodes>
            0 -1 64 3.9069220656529069e-04</internalNodes>
          <leafValues>
            -8.7448084354400635e-01 4.5365047454833984e-01</leafValues></_>
        <_>
          <internalNodes>
            0 -1 24 8.4462258964776993e-03</internalNodes>
          <leafValues>
            -9.2633479833602905e-01 3.4327673912048340e-01</leafValues></_>
        <_>
          <internalNodes>
            0 -1 31 3.2146647572517395e-02</internalNodes>
          <leafValues>
            -5.8190518617630005e-01 6.4656639099121094e-01</leafValues></_></weakClassifiers></_>
    <!-- stage 3 -->
    <_>
      <maxWeakCount>3</maxWeakCount>
      <stageThreshold>-9.3901604413986206e-01</stageThreshold>
      <weakClassifiers>
        <_>
          <internalNodes>
            0 -1 12 1.0957248508930206e-01</internalNodes>
          <leafValues>
            -9.6200346946716309e-01 6.8694013357162476e-01</leafValues></_>
        <_>
          <internalNodes>
            0 -1 57 -6.8784342147409916e-04</internalNodes>
          <leafValues>
            4.0548935532569885e-01 -9.2856889963150024e-01</leafValues></_>
        <_>
          <internalNodes>
            0 -1 34 2.5856196880340576e-01</internalNodes>
          <leafValues>
            -6.9738727807998657e-01 5.6395018100738525e-01</leafValues></_></weakClassifiers></_>
    <!-- stage 4 -->
    <_>
      <maxWeakCount>4</maxWeakCount>
      <stageThreshold>-5.9262186288833618e-01</stageThreshold>
      <weakClassifiers>
        <_>
          <internalNodes>
            0 -1 30 -2.4022992700338364e-02</internalNodes>
          <leafValues>
            6.7374515533447266e-01 -7.8980892896652222e-01</leafValues></_>
        <_>
          <internalNodes>
            0 -1 11 7.0028252899646759e-02</internalNodes>
          <leafValues>
            -7.9691946506500244e-01 4.9388372898101807e-01</leafValues></_>
        <_>
          <internalNodes>
            0 -1 16 1.1666410136967897e-03</internalNodes>
          <leafValues>
            -7.2619622945785522e-01 4.7550460696220398e-01</leafValues></_>
        <_>
          <internalNodes>
            0 -1 63 1.5965329948812723e-03</internalNodes>
          <leafValues>
            -7.3867362737655640e-01 4.2949953675270081e-01</leafValues></_></weakClassifiers></_>
    <!-- stage 5 -->
    <_>
      <maxWeakCount>3</maxWeakCount>
      <stageThreshold>-1.7826007306575775e-01</stageThreshold>
      <weakClassifiers>
        <_>
          <internalNodes>
            0 -1 18 1.0630654171109200e-02</internalNodes>
          <leafValues>
            -9.6137338876724243e-01 6.0340195894241333e-01</leafValues></_>
        <_>
          <internalNodes>
            0 -1 51 6.9826021790504456e-03</internalNodes>
          <leafValues>
            -7.7631103992462158e-01 4.3162256479263306e-01</leafValues></_>
        <_>
          <internalNodes>
            0 -1 44 7.3725739493966103e-03</internalNodes>
          <leafValues>
            -9.6070492267608643e-01 3.5149073600769043e-01</leafValues></_></weakClassifiers></_>
    <!-- stage 6 -->
    <_>
      <maxWeakCount>5</maxWeakCount>
      <stageThreshold>-1.0247721672058105e+00</stageThreshold>
      <weakClassifiers>
        <_>
          <internalNodes>
            0 -1 62 4.8851448809728026e-04</internalNodes>
          <leafValues>
            -7.9270631074905396e-01 6.0256999731063843e-01</leafValues></_>
        <_>
          <internalNodes>
            0 -1 9 -1.6404059715569019e-03</internalNodes>
          <leafValues>
            6.2010753154754639e-01 -5.6363457441329956e-01</leafValues></_>
        <_>
          <internalNodes>
            0 -1 46 -6.9685385096818209e-04</internalNodes>
          <leafValues>
            3.4745720028877258e-01 -9.0617078542709351e-01</leafValues></_>
        <_>
          <internalNodes>
            0 -1 47 -5.7914286851882935e-02</internalNodes>
          <leafValues>
            3.6142465472221375e-01 -8.2734954357147217e-01</leafValues></_>
        <_>
          <internalNodes>
            0 -1 0 3.8887709379196167e-01</internalNodes>
          <leafValues>
            -5.8381521701812744e-01 5.1921993494033813e-01</leafValues></_></weakClassifiers></_>
    <!-- stage 7 -->
    <_>
      <maxWeakCount>4</maxWeakCount>
      <stageThreshold>-4.0846052765846252e-01</stageThreshold>
      <weakClassifiers>
        <_>
          <internalNodes>
            0 -1 48 9.3618799000978470e-03</internalNodes>
          <leafValues>
            -9.6088021993637085e-01 5.6438237428665161e-01</leafValues></_>
        <_>
          <internalNodes>
            0 -1 43 3.2771043479442596e-02</internalNodes>
          <leafValues>
            -4.8965305089950562e-01 6.1244249343872070e-01</leafValues></_>
        <_>
          <internalNodes>
            0 -1 20 -5.1293300930410624e-04</internalNodes>
          <leafValues>
            3.6985093355178833e-01 -9.0988749265670776e-01</leafValues></_>
        <_>
          <internalNodes>
            0 -1 60 3.3415943384170532e-02</internalNodes>
          <leafValues>
            -4.2987379431724548e-01 7.5751346349716187e-01</leafValues></_></weakClassifiers></_>
    <!-- stage 8 -->
    <_>
      <maxWeakCount>6</maxWeakCount>
      <stageThreshold>-8.3228868246078491e-01</stageThreshold>
      <weakClassifiers>
        <_>
          <internalNodes>
            0 -1 29 2.1952982060611248e-03</internalNodes>
          <leafValues>
            -9.1100704669952393e-01 5.6709194183349609e-01</leafValues></_>
        <_>
          <internalNodes>
            0 -1 4 -1.5248168259859085e-02</internalNodes>
          <leafValues>
            3.9176040887832642e-01 -7.1740448474884033e-01</leafValues></_>
        <_>
          <internalNodes>
            0 -1 42 5.3052986040711403e-03</internalNodes>
          <leafValues>
            2.7186357975006104e-01 -9.3261826038360596e-01</leafValues></_>
        <_>
          <internalNodes>
            0 -1 58 -3.3045351505279541e-02</internalNodes>
          <leafValues>
            5.7400065660476685e-01 -5.0604122877120972e-01</leafValues></_>
        <_>
          <internalNodes>
            0 -1 33 1.5114109963178635e-02</internalNodes>
          <leafValues>
            -3.6809527873992920e-01 7.2432589530944824e-01</leafValues></_>
        <_>
          <internalNodes>
            0 -1 54 -2.1136580035090446e-03</internalNodes>
          <leafValues>
            2.8923091292381287e-01 -8.9926904439926147e-01</leafValues></_></weakClassifiers></_>
    <!-- stage 9 -->
    <_>
      <maxWeakCount>5</maxWeakCount>
      <stageThreshold>-9.5553201436996460e-01</stageThreshold>
      <weakClassifiers>
        <_>
          <internalNodes>
            0 -1 57 -8.3631591405719519e-04</internalNodes>
          <leafValues>
            5.6894242763519287e-01 -8.1699347496032715e-01</leafValues></_>
        <_>
          <internalNodes>
            0 -1 56 2.8362553566694260e-02</internalNodes>
          <leafValues>
            -5.7558333873748779e-01 4.7105979919433594e-01</leafValues></_>
        <_>
          <internalNodes>
            0 -1 21 6.7260693758726120e-03</internalNodes>
          <leafValues>
            -8.4975314140319824e-01 3.5040897130966187e-01</leafValues></_>
        <_>
          <internalNodes>
            0 -1 1 1.1332996189594269e-02</internalNodes>
          <leafValues>
            -3.8556000590324402e-01 7.3271811008453369e-01</leafValues></_>
        <_>
          <internalNodes>
            0 -1 40 2.3810672573745251e-03</internalNodes>
          <leafValues>
            -9.6766650676727295e-01 2.8642204403877258e-01</leafValues></_></weakClassifiers></_>
    <!-- stage 10 -->
    <_>
      <maxWeakCount>4</maxWeakCount>
      <stageThreshold>-4.5498093962669373e-01</stageThreshold>
      <weakClassifiers>
        <_>
          <internalNodes>
            0 -1 41 1.9127136096358299e-02</internalNodes>
          <leafValues>
            5.6859284639358521e-01 -8.9838337898254395e-01</leafValues></_>
        <_>
          <internalNodes>
            0 -1 53 5.3236889652907848e-04</internalNodes>
          <leafValues>
            2.6898619532585144e-01 -9.4082015752792358e-01</leafValues></_>
        <_>
          <internalNodes>
            0 -1 50 5.3709386847913265e-03</internalNodes>
          <leafValues>
            -4.6646535396575928e-01 5.3606551885604858e-01</leafValues></_>
        <_>
          <internalNodes>
            0 -1 13 -7.3747299611568451e-03</internalNodes>
          <leafValues>
            6.4088159799575806e-01 -4.1260674595832825e-01</leafValues></_></weakClassifiers></_>
    <!-- stage 11 -->
    <_>
      <maxWeakCount>5</maxWeakCount>
      <stageThreshold>-1.0719830989837646e+00</stageThreshold>
      <weakClassifiers>
        <_>
          <internalNodes>
            0 -1 39 -2.3907911963760853e-03</internalNodes>
          <leafValues>
            5.4148471355438232e-01 -8.2926827669143677e-01</leafValues></_>
        <_>
          <internalNodes>
            0 -1 61 1.4670914970338345e-03</internalNodes>
          <leafValues>
            -6.2914848327636719e-01 4.3074572086334229e-01</leafValues></_>
        <_>
          <internalNodes>
            0 -1 37 1.2752203270792961e-02</internalNodes>
          <leafValues>
            2.7750274538993835e-01 -8.9642959833145142e-01</leafValues></_>
        <_>
          <internalNodes>
            0 -1 45 4.4818902388215065e-03</internalNodes>
          <leafValues>
            -3.7534388899803162e-01 7.4841618537902832e-01</leafValues></_>
        <_>
          <internalNodes>
            0 -1 14 6.3380488427355886e-05</internalNodes>
          <leafValues>
            -8.9092332124710083e-01 2.8745412826538086e-01</leafValues></_></weakClassifiers></_>
    <!-- stage 12 -->
    <_>
      <maxWeakCount>4</maxWeakCount>
      <stageThreshold>-8.2574617862701416e-01</stageThreshold>
      <weakClassifiers>
        <_>
          <internalNodes>
            0 -1 59 -1.6929937992244959e-03</internalNodes>
          <leafValues>
            5.3766679763793945e-01 -9.2572945356369019e-01</leafValues></_>
        <_>
          <internalNodes>
            0 -1 7 -1.1816318146884441e-03</internalNodes>
          <leafValues>
            -7.3948663473129272e-01 3.6455729603767395e-01</leafValues></_>
        <_>
          <internalNodes>
            0 -1 15 3.0686124227941036e-04</internalNodes>
          <leafValues>
            -8.3750796318054199e-01 3.1275692582130432e-01</leafValues></_>
        <_>
          <internalNodes>
            0 -1 38 1.0045313276350498e-02</internalNodes>
          <leafValues>
            -9.6986722946166992e-01 2.1358157694339752e-01</leafValues></_></weakClassifiers></_>
    <!-- stage 13 -->
    <_>
      <maxWeakCount>5</maxWeakCount>
      <stageThreshold>-5.0958538055419922e-01</stageThreshold>
      <weakClassifiers>
        <_>
          <internalNodes>
            0 -1 35 2.8401670977473259e-02</internalNodes>
          <leafValues>
            5.5438131093978882e-01 -8.3682984113693237e-01</leafValues></_>
        <_>
          <internalNodes>
            0 -1 17 2.5519033893942833e-02</internalNodes>
          <leafValues>
            -2.8170219063758850e-01 8.7427669763565063e-01</leafValues></_>
        <_>
          <internalNodes>
            0 -1 10 -2.3191275540739298e-03</internalNodes>
          <leafValues>
            -8.9687323570251465e-01 3.2984009385108948e-01</leafValues></_>
        <_>
          <internalNodes>
            0 -1 22 -4.5381039381027222e-03</internalNodes>
          <leafValues>
            7.2781318426132202e-01 -3.7417954206466675e-01</leafValues></_>
        <_>
          <internalNodes>
            0 -1 49 4.2694061994552612e-03</internalNodes>
          <leafValues>
            -4.4870668649673462e-01 6.9006401300430298e-01</leafValues></_></weakClassifiers></_>
    <!-- stage 14 -->
    <_>
      <maxWeakCount>4</maxWeakCount>
      <stageThreshold>-2.1515418589115143e-01</stageThreshold>
      <weakClassifiers>
        <_>
          <internalNodes>
            0 -1 52 -4.7648046165704727e-03</internalNodes>
          <leafValues>
            5.5497610569000244e-01 -9.4486212730407715e-01</leafValues></_>
        <_>
          <internalNodes>
            0 -1 6 3.8842760026454926e-02</internalNodes>
          <leafValues>
            -3.1388902664184570e-01 9.2486047744750977e-01</leafValues></_>
        <_>
          <internalNodes>
            0 -1 64 4.6468083746731281e-04</internalNodes>
          <leafValues>
            -8.0602788925170898e-01 4.3274796009063721e-01</leafValues></_>
        <_>
          <internalNodes>
            0 -1 5 1.4754108851775527e-03</internalNodes>
          <leafValues>
            -5.0087749958038330e-01 6.1084902286529541e-01</leafValues></_></weakClassifiers></_>
    <!-- stage 15 -->
    <_>
      <maxWeakCount>4</maxWeakCount>
      <stageThreshold>-3.6063799262046814e-01</stageThreshold>
      <weakClassifiers>
        <_>
          <internalNodes>
            0 -1 25 6.7264231620356441e-04</internalNodes>
          <leafValues>
            -9.3199998140335083e-01 6.2090909481048584e-01</leafValues></_>
        <_>
          <internalNodes>
            0 -1 32 8.5942735895514488e-03</internalNodes>
          <leafValues>
            -4.7207060456275940e-01 8.0350327491760254e-01</leafValues></_>
        <_>
          <internalNodes>
            0 -1 27 1.7512761056423187e-02</internalNodes>
          <leafValues>
            4.9075448513031006e-01 -8.2592916488647461e-01</leafValues></_>
        <_>
          <internalNodes>
            0 -1 26 3.9882715791463852e-03</internalNodes>
          <leafValues>
            -9.7269904613494873e-01 3.1645268201828003e-01</leafValues></_></weakClassifiers></_></stages>
  <features>
    <_>
      <rects>
        <_>
          0 2 18 16 -1.</_>
        <_>
          6 2 6 16 3.</_></rects>
      <tilted>0</tilted></_>
    <_>
      <rects>
        <_>
          0 4 2 10 -1.</_>
        <_>
          1 4 1 10 2.</_></rects>
      <tilted>0</tilted></_>
    <_>
      <rects>
        <_>
          1 6 18 6 -1.</_>
        <_>
          7 6 6 6 3.</_></rects>
      <tilted>0</tilted></_>
    <_>
      <rects>
        <_>
          1 7 18 4 -1.</_>
        <_>
          7 7 6 4 3.</_></rects>
      <tilted>0</tilted></_>
    <_>
      <rects>
        <_>
          1 9 8 4 -1.</_>
        <_>
          1 9 4 2 2.</_>
        <_>
          5 11 4 2 2.</_></rects>
      <tilted>0</tilted></_>
    <_>
      <rects>
        <_>
          1 10 3 1 -1.</_>
        <_>
          2 10 1 1 3.</_></rects>
      <tilted>0</tilted></_>
    <_>
      <rects>
        <_>
          2 0 11 4 -1.</_>
        <_>
          2 2 11 2 2.</_></rects>
      <tilted>0</tilted></_>
    <_>
      <rects>
        <_>
          2 9 2 6 -1.</_>
        <_>
          2 11 2 2 3.</_></rects>
      <tilted>0</tilted></_>
    <_>
      <rects>
        <_>
          3 10 2 4 -1.</_>
        <_>
          3 12 2 2 2.</_></rects>
      <tilted>0</tilted></_>
    <_>
      <rects>
        <_>
          3 11 2 2 -1.</_>
        <_>
          4 11 1 2 2.</_></rects>
      <tilted>0</tilted></_>
    <_>
      <rects>
        <_>
          3 11 2 3 -1.</_>
        <_>
          3 12 2 1 3.</_></rects>
      <tilted>0</tilted></_>
    <_>
      <rects>
        <_>
          4 4 11 6 -1.</_>
        <_>
          4 7 11 3 2.</_></rects>
      <tilted>0</tilted></_>
    <_>
      <rects>
        <_>
          4 6 12 8 -1.</_>
        <_>
          8 6 4 8 3.</_></rects>
      <tilted>0</tilted></_>
    <_>
      <rects>
        <_>
          4 9 2 6 -1.</_>
        <_>
          4 9 1 3 2.</_>
        <_>
          5 12 1 3 2.</_></rects>
      <tilted>0</tilted></_>
    <_>
      <rects>
        <_>
          4 12 1 2 -1.</_>
        <_>
          4 13 1 1 2.</_></rects>
      <tilted>0</tilted></_>
    <_>
      <rects>
        <_>
          4 13 2 2 -1.</_>
        <_>
          4 14 2 1 2.</_></rects>
      <tilted>0</tilted></_>
    <_>
      <rects>
        <_>
          4 13 3 2 -1.</_>
        <_>
          4 14 3 1 2.</_></rects>
      <tilted>0</tilted></_>
    <_>
      <rects>
        <_>
          5 0 6 4 -1.</_>
        <_>
          5 2 6 2 2.</_></rects>
      <tilted>0</tilted></_>
    <_>
      <rects>
        <_>
          5 5 6 8 -1.</_>
        <_>
          7 5 2 8 3.</_></rects>
      <tilted>0</tilted></_>
    <_>
      <rects>
        <_>
          5 9 11 4 -1.</_>
        <_>
          5 11 11 2 2.</_></rects>
      <tilted>0</tilted></_>
    <_>
      <rects>
        <_>
          5 11 2 4 -1.</_>
        <_>
          5 11 1 2 2.</_>
        <_>
          6 13 1 2 2.</_></rects>
      <tilted>0</tilted></_>
    <_>
      <rects>
        <_>
          5 13 9 4 -1.</_>
        <_>
          5 15 9 2 2.</_></rects>
      <tilted>0</tilted></_>
    <_>
      <rects>
        <_>
          6 2 5 2 -1.</_>
        <_>
          6 3 5 1 2.</_></rects>
      <tilted>0</tilted></_>
    <_>
      <rects>
        <_>
          6 3 8 12 -1.</_>
        <_>
          6 7 8 4 3.</_></rects>
      <tilted>0</tilted></_>
    <_>
      <rects>
        <_>
          6 9 6 5 -1.</_>
        <_>
          8 9 2 5 3.</_></rects>
      <tilted>0</tilted></_>
    <_>
      <rects>
        <_>
          6 10 2 6 -1.</_>
        <_>
          7 10 1 6 2.</_></rects>
      <tilted>0</tilted></_>
    <_>
      <rects>
        <_>
          6 10 6 3 -1.</_>
        <_>
          8 10 2 3 3.</_></rects>
      <tilted>0</tilted></_>
    <_>
      <rects>
        <_>
          6 10 4 4 -1.</_>
        <_>
          8 10 2 4 2.</_></rects>
      <tilted>0</tilted></_>
    <_>
      <rects>
        <_>
          6 10 9 6 -1.</_>
        <_>
          6 12 9 2 3.</_></rects>
      <tilted>0</tilted></_>
    <_>
      <rects>
        <_>
          6 11 6 3 -1.</_>
        <_>
          8 11 2 3 3.</_></rects>
      <tilted>0</tilted></_>
    <_>
      <rects>
        <_>
          6 11 8 6 -1.</_>
        <_>
          6 13 8 2 3.</_></rects>
      <tilted>0</tilted></_>
    <_>
      <rects>
        <_>
          6 14 9 6 -1.</_>
        <_>
          6 16 9 2 3.</_></rects>
      <tilted>0</tilted></_>
    <_>
      <rects>
        <_>
          7 0 4 6 -1.</_>
        <_>
          7 2 4 2 3.</_></rects>
      <tilted>0</tilted></_>
    <_>
      <rects>
        <_>
          7 0 5 4 -1.</_>
        <_>
          7 2 5 2 2.</_></rects>
      <tilted>0</tilted></_>
    <_>
      <rects>
        <_>
          7 0 7 18 -1.</_>
        <_>
          7 6 7 6 3.</_></rects>
      <tilted>0</tilted></_>
    <_>
      <rects>
        <_>
          7 4 6 9 -1.</_>
        <_>
          9 4 2 9 3.</_></rects>
      <tilted>0</tilted></_>
    <_>
      <rects>
        <_>
          7 4 6 6 -1.</_>
        <_>
          7 7 6 3 2.</_></rects>
      <tilted>0</tilted></_>
    <_>
      <rects>
        <_>
          7 5 6 12 -1.</_>
        <_>
          7 5 3 6 2.</_>
        <_>
          10 11 3 6 2.</_></rects>
      <tilted>0</tilted></_>
    <_>
      <rects>
        <_>
          7 7 6 8 -1.</_>
        <_>
          9 7 2 8 3.</_></rects>
      <tilted>0</tilted></_>
    <_>
      <rects>
        <_>
          7 9 1 4 -1.</_>
        <_>
          7 11 1 2 2.</_></rects>
      <tilted>0</tilted></_>
    <_>
      <rects>
        <_>
          7 10 6 2 -1.</_>
        <_>
          9 10 2 2 3.</_></rects>
      <tilted>0</tilted></_>
    <_>
      <rects>
        <_>
          7 10 6 4 -1.</_>
        <_>
          9 10 2 4 3.</_></rects>
      <tilted>0</tilted></_>
    <_>
      <rects>
        <_>
          7 11 2 6 -1.</_>
        <_>
          8 11 1 6 2.</_></rects>
      <tilted>0</tilted></_>
    <_>
      <rects>
        <_>
          7 14 7 6 -1.</_>
        <_>
          7 16 7 2 3.</_></rects>
      <tilted>0</tilted></_>
    <_>
      <rects>
        <_>
          8 9 6 5 -1.</_>
        <_>
          10 9 2 5 3.</_></rects>
      <tilted>0</tilted></_>
    <_>
      <rects>
        <_>
          9 1 2 2 -1.</_>
        <_>
          9 2 2 1 2.</_></rects>
      <tilted>0</tilted></_>
    <_>
      <rects>
        <_>
          9 4 2 3 -1.</_>
        <_>
          9 5 2 1 3.</_></rects>
      <tilted>0</tilted></_>
    <_>
      <rects>
        <_>
          9 4 4 16 -1.</_>
        <_>
          9 12 4 8 2.</_></rects>
      <tilted>0</tilted></_>
    <_>
      <rects>
        <_>
          9 6 2 6 -1.</_>
        <_>
          9 8 2 2 3.</_></rects>
      <tilted>0</tilted></_>
    <_>
      <rects>
        <_>
          9 16 2 3 -1.</_>
        <_>
          9 17 2 1 3.</_></rects>
      <tilted>0</tilted></_>
    <_>
      <rects>
        <_>
          9 16 3 3 -1.</_>
        <_>
          9 17 3 1 3.</_></rects>
      <tilted>0</tilted></_>
    <_>
      <rects>
        <_>
          10 5 6 8 -1.</_>
        <_>
          12 5 2 8 3.</_></rects>
      <tilted>0</tilted></_>
    <_>
      <rects>
        <_>
          10 9 2 4 -1.</_>
        <_>
          10 11 2 2 2.</_></rects>
      <tilted>0</tilted></_>
    <_>
      <rects>
        <_>
          10 10 2 5 -1.</_>
        <_>
          11 10 1 5 2.</_></rects>
      <tilted>0</tilted></_>
    <_>
      <rects>
        <_>
          11 6 2 12 -1.</_>
        <_>
          12 6 1 12 2.</_></rects>
      <tilted>0</tilted></_>
    <_>
      <rects>
        <_>
          11 11 4 2 -1.</_>
        <_>
          13 11 2 2 2.</_></rects>
      <tilted>0</tilted></_>
    <_>
      <rects>
        <_>
          12 2 3 8 -1.</_>
        <_>
          12 6 3 4 2.</_></rects>
      <tilted>0</tilted></_>
    <_>
      <rects>
        <_>
          12 12 2 2 -1.</_>
        <_>
          13 12 1 2 2.</_></rects>
      <tilted>0</tilted></_>
    <_>
      <rects>
        <_>
          13 6 4 6 -1.</_>
        <_>
          15 6 2 6 2.</_></rects>
      <tilted>0</tilted></_>
    <_>
      <rects>
        <_>
          13 8 2 9 -1.</_>
        <_>
          14 8 1 9 2.</_></rects>
      <tilted>0</tilted></_>
    <_>
      <rects>
        <_>
          14 7 4 8 -1.</_>
        <_>
          14 7 2 4 2.</_>
        <_>
          16 11 2 4 2.</_></rects>
      <tilted>0</tilted></_>
    <_>
      <rects>
        <_>
          14 11 2 4 -1.</_>
        <_>
          14 11 1 2 2.</_>
        <_>
          15 13 1 2 2.</_></rects>
      <tilted>0</tilted></_>
    <_>
      <rects>
        <_>
          14 13 2 2 -1.</_>
        <_>
          14 14 2 1 2.</_></rects>
      <tilted>0</tilted></_>
    <_>
      <rects>
        <_>
          15 10 3 4 -1.</_>
        <_>
          15 12 3 2 2.</_></rects>
      <tilted>0</tilted></_>
    <_>
      <rects>
        <_>
          15 12 2 2 -1.</_>
        <_>
          15 13 2 1 2.</_></rects>
      <tilted>0</tilted></_></features></cascade>
</opencv_storage>
