<?xml version="1.0"?>
<opencv_storage>
<stage2>
  <maxWeakCount>5</maxWeakCount>
  <stageThreshold>-1.2654062509536743e+00</stageThreshold>
  <weakClassifiers>
    <_>
      <internalNodes>
        0 -1 38382 -3.4912593662738800e-02</internalNodes>
      <leafValues>
        6.7403846979141235e-01 -8.0967742204666138e-01</leafValues></_>
    <_>
      <internalNodes>
        0 -1 26496 1.6502763610333204e-03</internalNodes>
      <leafValues>
        -7.4812614917755127e-01 5.9886068105697632e-01</leafValues></_>
    <_>
      <internalNodes>
        0 -1 74932 3.9069220656529069e-04</internalNodes>
      <leafValues>
        -8.7448084354400635e-01 4.5365047454833984e-01</leafValues></_>
    <_>
      <internalNodes>
        0 -1 43595 8.4462258964776993e-03</internalNodes>
      <leafValues>
        -9.2633479833602905e-01 3.4327673912048340e-01</leafValues></_>
    <_>
      <internalNodes>
        0 -1 44787 3.2146647572517395e-02</internalNodes>
      <leafValues>
        -5.8190518617630005e-01 6.4656639099121094e-01</leafValues></_></weakClassifiers></stage2>
</opencv_storage>
