<?xml version="1.0"?>
<opencv_storage>
<stage13>
  <maxWeakCount>5</maxWeakCount>
  <stageThreshold>-5.0958538055419922e-01</stageThreshold>
  <weakClassifiers>
    <_>
      <internalNodes>
        0 -1 46961 2.8401670977473259e-02</internalNodes>
      <leafValues>
        5.5438131093978882e-01 -8.3682984113693237e-01</leafValues></_>
    <_>
      <internalNodes>
        0 -1 34525 2.5519033893942833e-02</internalNodes>
      <leafValues>
        -2.8170219063758850e-01 8.7427669763565063e-01</leafValues></_>
    <_>
      <internalNodes>
        0 -1 26795 -2.3191275540739298e-03</internalNodes>
      <leafValues>
        -8.9687323570251465e-01 3.2984009385108948e-01</leafValues></_>
    <_>
      <internalNodes>
        0 -1 41092 -4.5381039381027222e-03</internalNodes>
      <leafValues>
        7.2781318426132202e-01 -3.7417954206466675e-01</leafValues></_>
    <_>
      <internalNodes>
        0 -1 58445 4.2694061994552612e-03</internalNodes>
      <leafValues>
        -4.4870668649673462e-01 6.9006401300430298e-01</leafValues></_></weakClassifiers></stage13>
</opencv_storage>
